{"cost": "CrossEntropyCost", "weights": [[[0.8120640861449671, -0.29321531176825777, 1.7147609302909153, -0.5675420279888916, -5.878816897632103, 2.1522858047040168, -7.586612328405636, -1.580384936282948, -5.0447007743833545, 0.1687067945963348, 9.148324633676525, -3.8902496582598736, -1.9595264636867842, -0.5821764310437697, -0.879169541196004, 1.9311930126147572, -5.494141020139171, -0.15286853863894262, -0.32534243143428754, 1.7523914088335708, 0.11486216924699295, 0.34228621609964144, 0.007096121167277075, 0.025238066100833616, -0.5317087737226949], [-1.4154457572614556, -3.3048638523780074, 2.9414502993489884, -1.9147916649766195, -11.60723240791114, 2.3997126674365963, 0.8344072703721742, -3.748640084076796, -2.98036633613628, 2.0982526045702548, 11.70135140307689, 4.51176959018102, -0.6585522962949003, -2.8485669481040725, 3.8411942621351627, 2.3235792699434885, 0.8591718820668809, 9.006074552929956, 1.0052378818161143, -1.2329490678226496, 0.2637090667290358, 0.9023282939858156, 0.07473620496533875, -0.0946627563598436, -0.09921673619203418], [-0.5127257336068552, 0.39610592101684056, -7.764606603494379, -5.132793860323252, -0.6178030757085229, -3.57587909270031, 10.022364816800215, -6.1778971498632025, -0.8372397227015449, -3.6922987596567247, -2.8639814504412353, -6.599905238755251, -3.87023719766979, -5.169878347883138, -2.8913576215715824, 3.1676376108840585, 0.4644058497328406, 0.18244696409145011, -0.006798523000888645, -0.4795879638217655, 0.3074910521501832, 0.19243613810960467, -0.07639512879927585, 0.2862504126413235, 0.15635962891143587], [4.880812337078207, -2.7315003803384217, -2.99074340840281, -1.3537247502193814, 4.042733003600829, 2.415188895588817, -13.367528891483504, -11.013008093960565, 1.9901295663520975, 5.455078697953787, 1.7397216008437628, 0.9353144026477855, 4.472805515487029, 6.1666788598455495, -0.784207738991443, -0.008981072244846648, -0.6075484605875977, 1.8608657877214516, 3.9150544747729255, 9.284821520190038, -0.11581851083051578, -0.4665753023909592, -0.2851815261442428, -0.07434919677328142, -0.3556242553107762], [7.059395704349489, -18.16627918434427, -7.293729360935266, -4.330638837790298, 8.083883312314647, -1.0362836540495242, -0.18858837383685867, -1.4726006803810596, -11.739548857221918, -0.5494514363051302, -1.9771906857445767, 0.17621610097099544, 0.6683184602970693, -3.0846993729395744, -3.7980956863599484, -1.366998243820863, -1.1417839889949386, -0.3856070333341725, -0.35834875848811576, -0.08973136883673696, -0.0757912795015108, -0.08844139201371311, -0.12265496428514719, -0.08117709931673842, -0.06583213891578085], [3.145730026320093, 10.708334760338884, 3.519786038127901, -11.695765657193386, -6.145109219792076, -4.313405250561723, 2.2368345798243, -0.39680226353396353, 0.10804005050587542, -4.726940472021239, 2.498009464983627, 0.08842838048962615, -3.130917968634154, -1.7308954280266513, -4.244989712251398, 0.422518494371705, -5.979040645053631, -6.459121304035372, 0.9395262132224997, -0.6341482626891423, -0.18239479248992516, -0.06843348012608279, -0.4500670812054665, 0.20736122383380445, 0.1532231547755336], [-18.32627053258105, -13.46393639266129, 4.907383538195024, 5.993384511370801, -9.070257457325393, 0.7467916983514415, 2.151609538311602, 2.8165487757436747, -10.810854655696614, -12.89790572282981, 0.7564064903279558, 2.559305110388655, 0.14257792567499192, -3.911965759991504, -4.840586927349631, -1.2654340066401224, -2.150663844533182, -0.5929338208458287, -0.05229519232200442, -0.1231731930740978, -0.23380204763042128, -0.10868986349927637, -0.06621565611164075, -0.022593040720710843, -0.11962488732624252], [6.7135756061719585, -4.020918218850842, -7.612404927022227, 4.435541584688728, -1.2464416497769573, -9.289522296245305, -8.916016174702216, 0.4051488666651855, 1.008675782619611, 0.2522006554982636, -2.3114716085023015, -0.5571241712390812, 1.2338959955858504, -0.24009842418601174, 0.07075384530126982, -1.7014812662993302, -4.4826055284240685, -4.208678634789502, -0.1890319364969324, 1.5227517260297831, 0.022530616544556632, -0.038468219471873275, 0.09603403611353112, -0.27395959211632126, 0.22904134424038786], [-2.5462807975068102, -4.751738789049412, -10.110157475976623, 11.426618495285382, -7.804206764570564, -0.9425378088434794, 4.590232901412671, -10.896600821145096, -1.9971316018982692, -6.510975993641352, -0.652153073573711, -5.5083202531252375, -0.6366669982303209, -2.5889488674170926, -6.207571020167478, 1.214953740034656, -3.76082052428275, -0.1854800603252378, -0.25476277968161104, 1.5704787659725656, -0.01663705486353314, 0.4777390595893706, 0.09325662014042584, 0.10554338349262649, -0.1546561911052011], [-3.663496800194626, -0.811999846143855, 2.0486701586989953, -4.000307094343885, -3.0755877306071646, 0.6248039021553632, 9.60905583575541, 0.8938817240256374, -9.582958004347176, -0.2829023594345017, -1.562363843813708, 1.6494795418139123, 3.0223665074843873, -2.8003661575899583, -5.798802455387832, 1.5652517248307942, -3.367870133740604, -0.7119126344784047, 0.072371942013918, 0.0762178680549239, 0.1981014390266835, 0.10547733139544362, 0.037589622298798066, -0.03561102516197197, 0.02329232261067465], [-9.357062952285904, -9.77601777392735, 4.283422195202359, 1.12780923901769, -6.197765122406541, -6.706129866038739, -3.341435788585575, -3.1172068338027406, 6.661531280903613, -0.4857915426730864, -7.094956322138295, 4.401891012034847, -1.3657438710046423, 3.4409038888649377, -4.236361799071819, 1.2011685621844541, -0.6626539370577385, -0.39642033040047436, -0.6597255397107027, -0.7765277242699914, -0.20702191086901275, 0.1685636577898711, -0.060048014091137254, -0.39418548601517106, -0.010272848466552872], [-4.395091475779857, 1.7325224719078958, 3.718458483688189, 0.2504678070550445, 0.11643154118630786, -4.679190266802698, -4.688329039965381, 2.184295282701534, 4.010875632285503, 2.767159066890634, -0.5063419708969713, 1.3740923552207194, -0.1366353738676299, -3.302254395235476, 0.6187697876248894, -0.5653152153408655, -0.8310413396321745, -0.35991061747388875, -0.7745585707573638, -0.487266489824868, 0.3603953446084941, 0.2025042111165007, 0.15057117583841353, 0.1766608638027826, -0.10060780878962014], [3.795151627632784, 4.967596539616747, -21.866385273513536, -9.75591591196157, 0.3446723331031376, 7.238781446694776, -5.765159877120765, 0.2486713639978681, -4.968954104388832, -3.086640980895576, 3.22449005512162, -3.6923068158554253, -8.179965036402217, -5.4047920393156845, -4.577467284615188, -0.014196166823207132, -1.1385397282181613, 1.2557203316974392, 0.29943213095454957, -0.17364848576721653, 0.003917203502946371, -0.4206139245759515, -0.05871121424960316, -0.3006798183994059, -0.1340276375844383], [4.506752523126387, -4.582955442102298, -16.872145511224677, -1.2653329911655489, -6.491437708093842, -6.4322827321413705, -0.02023174974645935, -3.731111032961712, -1.9217422616938515, 2.0219799456622427, -0.14583239151067212, 4.030174908605704, 8.266191679644395, 2.8924796672810884, -2.9481914316296156, -0.8092518193745115, -2.2837622225557968, -2.5496919336044206, -1.8357808130606612, -3.1868063202344974, -0.04020235364678404, 0.03668223876365474, -0.13703304763316138, -0.08549470308010242, 0.07254641726386797], [0.26223285308249467, -1.1803022097786084, -2.3097493815210313, -0.3768743400789069, -3.0713758991363633, -5.831744641435619, -2.355331157515364, -2.2359799333723753, -2.21120145318743, 3.867916824664853, -7.701610028757221, 10.789223616076805, -5.5096297088610475, -3.302057041886314, -2.6833996541352905, -3.691993944959646, -1.7082493030149755, -1.3849168338929316, 6.654992853429605, 0.0431108865302654, -0.47183746746515487, 0.3522239006444655, 0.09109621320629621, -0.3595081293126857, -0.22594241691307282], [-19.557140102270104, -8.629513756554244, 36.34577815224862, 1.8284105168206044, -1.095785244263435, -0.6795419584783475, -1.2202411428448063, -3.5965080411653063, -0.20762416112046708, 0.4297964117654052, -0.04154138930318337, -0.45215582431791357, 1.2198770724033654, 0.20786715626309948, -2.5074098428787828, -0.8085838647657575, -1.6229524426672186, -1.1197169284475594, 1.780591561833988, -1.177123354389756, 0.07252086875964077, -0.26981168464767075, 0.13150749110683987, 0.05419302986818804, -0.13656959116277242], [1.585273857621452, 1.5335108214250213, -4.307895138024798, 3.1251831865357516, 14.68837261822263, -10.071855670839629, -1.5267884989990308, 1.223244162602922, 0.8268343193577302, -2.525848480658439, 0.5910782312343763, 1.9219326621860593, 1.231852394986943, -4.184462561259391, 1.8796391681669302, -0.4305230042897603, -2.7251800156313752, -1.025160978218766, -0.4443565987677024, -0.12620096605482747, -0.07147750841946965, -0.23993262536926985, 0.03789947863802529, 0.004307738300613194, -0.13657418586694473], [0.9434029089468335, -3.066798251135489, -1.1433511581133624, -2.663277995452043, 2.435044358208521, 5.2816174159180065, -1.0275523210786555, -16.33300365027479, 7.9479926670581955, -6.187738087387124, -3.185182627759867, -4.79452854914581, 1.6178742553898557, 1.1700770524456892, -4.848392034320223, -2.1297560362908317, -0.6972516403667248, 1.1759390488031478, -0.4503756437796908, -0.3395110482834332, -0.4561105763290501, 0.32436938434718066, -0.029573296486277562, -0.35594921947669056, 0.13273624975427206], [-5.790192228556277, 2.3819935791313225, 3.0274626287426587, -1.7087963068503682, -0.6581689880685606, -10.89711066080611, -4.285694830625104, -6.4813907259695975, 1.5113045952854522, -6.038230243135527, -1.4908262532460856, -6.36866429588265, -4.277660995918065, -5.058391190177409, -0.9453282643814731, 2.011228597761017, -1.6438722029879398, 3.418834524513308, 0.18583234851811606, 0.08183466050690363, -0.08531764176571137, -0.299628205349784, 0.02615704426937299, -0.05833523849034404, -0.0033620096713947245], [2.1599024661950312, -1.7961260251578628, 25.91463748392881, -28.158146148070767, -5.258860396414169, 13.303683264027582, 1.0857089869382386, 0.4027975668547836, 0.3629032706704685, 0.893522040307477, 2.1043343131683283, 1.3401700040523306, -0.1812397580907594, -0.23863091204363085, -1.3381696208112, -0.4125940322910647, -1.9079007536255754, -0.14947690944714612, -0.3652469777166141, -1.0151177947327672, 0.02155193258350213, -0.4129452410241553, 0.13856877521080002, 0.05049281410211211, 0.23226947051541194], [-6.3361194525242235, -5.001433893779406, 34.4476539676616, 1.6611563780997451, -6.788746168456064, -9.914648746566021, -8.028279047104082, -2.3419706801000144, -0.18309677277021394, -3.441228347349144, 0.6983901655946066, -3.7787962998214226, -5.237014866373986, -2.8567441051645424, -2.6733061651017502, -3.927875825947359, -0.7354128990769295, -0.6992119405478241, 0.3045908272486796, -0.06419169228532622, -0.03484802221916036, -0.35152511158630473, -0.10574831869529003, -0.1405247883321917, 0.012871145798124341], [15.792440000958534, -5.605511654380625, -18.098074799226985, -8.656795593934678, 2.855032700831013, 3.789822232277346, -5.364828538548846, -5.211390061693986, 6.366111705293575, -16.91051432877262, 3.925695491744735, -9.16331853695251, -3.6444680385021364, 4.533673892902196, -4.6737969963912, 0.2882128891204116, -0.21567809432656013, 0.12850170989043017, -0.5778835696985264, 0.0011629353892951824, 0.2379836359724997, -0.2624390860978485, 0.13498226285933068, -0.28828342329865386, -0.24890536606090946], [-3.440339516153874, -3.395533118394616, -0.13138414449062852, 1.9100084223333171, -0.71961902814912, 7.071686398932675, -15.408568836088381, -7.048458620969511, -1.6622996782383797, -0.2608089316253946, -8.65002158547324, -6.089780475120745, -0.7757414224883353, -2.8993475995270237, -0.9926563945970371, -0.1793850196476613, -0.39148098737046266, -0.24984581247881088, -0.2382206412358788, -0.2384578908527178, -0.3151180369121993, 0.05580496963746578, 0.48894493379667747, 0.33369006863986594, -0.28437859460936277], [-14.648775285600367, -2.6486694736599463, 2.908871884162146, -3.370237129009282, 0.3273212219006825, -8.460714860837133, 3.6035484331902943, 4.448882033279235, 2.911667410340233, -0.9023006924585539, 2.4436807128074958, 3.528524095880762, 3.2074526001886476, -3.985228450779476, -6.590554617123798, -2.873194691206301, 0.869945899796213, 3.7141756288730314, 0.545612522380666, -1.2080032544834851, 0.21476801641091417, 0.03440317213964803, -0.0012973582436614853, 0.1584408002609094, 0.528418042400185], [24.267498376941575, 3.7080330419647485, -6.504394771906393, 1.6226136226754455, 3.9094139576444333, -1.562632083092611, -4.399960207411178, -1.65476689150115, -1.1955197422675379, -2.5098642567717158, -0.2995210306296223, -0.8110927823420839, -3.5026642587528767, 0.4928068874001368, -3.03665626216419, 1.3682850173947485, -2.3759740958277225, -3.9177559380155182, -0.16168913013996744, 0.07052160889569865, 0.2164308260098056, 0.14472923777883298, -0.3228846592054328, -0.2675006547588598, -0.2001783885524079], [10.994578775697597, 0.7888407584478303, -10.70176959676599, -22.236734225616402, -2.861779323328791, 12.979887062839653, 0.5211866839701048, -4.9696217043134805, -0.7631426630318952, 0.184926973552555, 2.444284883924648, 2.6118001208569934, 2.737680702545513, 1.887722763976081, -2.3394854296320013, -1.9378172764960122, 3.7685827380343278, -3.3019682071368806, -0.9396191487367698, 0.21449449557691624, -0.07901014909031431, -0.060886924393618855, -0.07568632793669895, 0.3876263458394739, 0.037315631164741035], [19.473263699140368, -47.78262792343745, 25.1391473780856, -1.5503104876353726, -1.093764324087063, -2.556784030955268, -2.824936352374698, -1.0651896954404203, -1.1786064594022838, -1.0244036910330832, -0.09727331567385626, -0.656879526731155, -1.594285617556355, -3.0745026896694445, -1.2721606800772554, -0.4018916418978735, -0.36485291059224045, -2.301342633259848, 2.1627125993129215, -0.42357409097685195, -0.20233841350774712, 0.14192367507926723, 0.2724417859241122, 0.11126111955454503, -0.011932039125348372], [-11.763872131755772, -6.366508217732781, 20.867928192409014, 6.499425959078602, -0.039986353743187375, -2.670658597436517, -1.4404300911170589, -1.1109100059932207, -0.8612707198796268, 0.17026777295761694, 0.12347166664278753, -1.2119206987566997, 0.11731017214969702, -1.5734931626763016, -1.4098750629967098, -1.007757026001825, -2.2840321107116153, 2.9551892506846005, 0.1475170339135031, -1.2313766881937516, 0.40969363313297397, 0.1625656778334218, -0.10178592958650409, 0.09695370378674305, 0.19133337552460122], [4.388183885608534, -18.908744363537192, 18.113782374725055, 0.5394712995432405, -2.7014359892313204, -3.5250890595855577, 0.9410209139135007, -1.7031272184935908, 6.122358485766602, -2.108458848432813, -8.183510191399703, -6.927742553320865, -1.955103541611365, -6.4195046672542295, 1.6836802399654176, -1.799842585424352, 4.371660380777222, 1.7013313217535793, 0.7932737954950356, 0.014239149384158977, 0.039725887753256, -0.2983240670812994, 0.24966035138174736, -0.07409484833832164, -0.06454928539391103], [3.5590901839118882, 8.660535747552334, -0.35181009151522463, 3.924953366494945, 0.13447841960634316, 2.240434173128388, -4.873807275716844, 2.316276342290221, -6.432206806779893, -0.4558461027765607, -6.610371955293619, -1.8384245245969695, -1.4806616036781544, -4.846456443342397, -3.184509379250063, -0.7331880742958422, 9.151893659738505, -1.249411322961167, 0.9930286869705148, 0.13508198120539777, -0.1160820919775263, 0.002774952002596586, 0.10124833696275497, 0.1952490054528222, -0.3616258011676434]], [[-3.4782875889962233, -10.997052357624115, -1.8785849960143925, -2.4143666643980004, 5.228592738512186, 1.0157779915673857, -2.495496138859365, -1.0806428618195798, 2.48282008235028, -5.199479218437285, -2.6511603524725977, -1.5779306934358686, 4.280475354345311, -3.0786194218571876, -1.2304169464109422, -4.858070695729683, -2.268770386603463, -0.8651289240910386, 5.949323486632786, -1.9187736625542762, -1.4265761140306892, 5.6484145290396075, 5.429554198503068, -3.047250000647161, -18.88295936221875, -8.242972586493563, -3.0885488120304316, -2.037236837189478, 3.8941604829683123, 3.0626026819669674], [-0.9399025704238302, 1.2512760804230114, 1.183162456927142, 0.67031005119596, -0.8122249237291649, -1.9513088142456514, 5.186889831591327, 0.9580181533365257, -0.771675686531857, 0.5660448849836593, 8.490999429613868, 2.6882050209777173, 1.9543779872831217, -0.24643494132171054, -1.207348102188212, -0.9865603374551579, -1.3159113669752804, -2.0091936864548545, -2.6934726023597433, 5.584452500636437, -1.3772858060709203, -1.4703732800876161, 1.665948804451122, 0.9594835865946483, -2.2548332004427625, -0.9185981281455833, -6.748777531365907, -1.356243422465685, -0.9177388027672106, -4.702988768681386], [0.9444992280870335, -0.05514742863583536, 1.7050531538364269, -0.11566727763247522, -0.5068164024280559, -0.6034079387656829, 0.25641324046966685, -1.720262237668887, -1.0207142723269444, -2.909469163792498, -1.1367559037561046, -1.1241748975984158, -1.302534160328716, 2.4776649592013236, 2.3486523597383067, -2.8157688957291795, -1.2479149491328267, -0.7849013332409389, 0.7625998543650006, 0.05226855887856318, -2.8578109765962796, 0.39950442905922984, 2.1126161874827645, 1.656522173866681, -1.7813013376953033, -3.3726935966046248, 6.793773623922902, 2.9525585200022633, 2.077227951950817, 2.3881946066601527], [-1.8214522318653104, 0.32077800311969307, 1.1751942617461562, 3.324229227323013, -0.6376491288978681, -7.599162281072651, 1.8117481568359108, -3.303693312005251, -2.6583812559399913, -1.216142910498234, -6.146999374867018, -1.261328167278123, 0.33000045228164726, 0.9313200410719275, -2.4783166614899774, 0.18671332159599566, 0.39404365977661276, -1.776261117038091, 3.208040907327488, -3.434456240347984, -1.8594499568285199, 0.09433955249679694, 0.6958809080126349, -0.39577207328977765, 0.41379271382618255, -2.6363140258426396, 0.7640716600723011, -1.6570112699134498, 0.21495781866882618, 0.44612030746025694], [0.4980082084388849, -1.0645080084396115, -1.9694005927323899, -2.1909219052630458, 0.06834720461592779, 1.776648001313312, -4.427878693071358, 0.45665778925390693, 1.029744670622517, 0.9246745924164063, -6.570075532776511, -1.2941281214625737, -2.1048511900277562, -1.748791819674237, -0.4182023749527432, 2.4282625147490826, 1.0286574926930276, 1.9670489542392673, -1.5280254035730476, -5.8909316127191795, 2.9665305170616634, -0.7258105653119523, -3.7265047416011075, -1.5100916850782327, 2.961697442570193, 3.0738015271609513, -6.256761031968962, -1.1959902728257172, -1.9146848195281914, -0.824681797917971]]], "biases": [[[-3.425466079183081], [-7.627826891649913], [1.1427424325256323], [-10.204212338205924], [-5.353838425799205], [-5.066690252304518], [-0.9738689437358162], [1.88502692016308], [-2.1160449298491795], [-7.877366794981177], [-5.609280815984896], [-6.247269372572656], [-2.7311947624130153], [1.3738243305380249], [-4.507095280005022], [-18.665097633744363], [-14.473808809240163], [-8.727630039447101], [3.276224083978521], [-34.83448199696909], [-17.293326666709632], [-6.470787424299587], [-1.179872792795847], [-4.8602885621287015], [-19.987589778706766], [-12.525147007045872], [-35.24712777951079], [-10.53467605242611], [-20.18522488305562], [-12.51431796436804]], [[-5.3524967639443615], [-1.5337377086927326], [-2.856103756832111], [-2.9950975071899464], [0.9300503046583237]]], "sizes": [25, 30, 5]}