{"cost": "CrossEntropyCost", "weights": [[[0.8719296439845936, 0.5181876689669072, -3.1035315258599985, -1.9127650067993018, -0.3023138891077536, 0.5635434460203269, -1.618814578726731, -0.6717468989350462, 0.03791676556510978, -0.6456401127287896, -0.39923681157856516, -1.1878923813328526, -2.474070201174565, -1.353404809902433, -0.9685773606693471, -0.5664412628294566, 0.02037279424322249, 0.10111656578188369, 0.16318896131729252, -0.052190207925755225, 0.216067209360862, 0.02452198752572232, -0.212451310139303, -0.18934103044572484, 0.1609919904887583, 0.07137190232742817, -0.04572904542261972, 0.1754435326878797, 0.0016141006215371094, 0.22804286597659285, 0.07891376224069112, 0.0626200163202818, -0.0627173326896294, -0.1794116015696173, 0.20879929414858847, 0.14907419677611466, -0.09676678220986062, -0.03452948940154692, -0.14290686522496995, 0.14429792814454032, -0.1421168592179541, 0.11744047823402448, -0.16016520422327027, -0.18453901295688013, 0.050801016178611096, 0.14404949098224445, 0.1247923492907541, -0.03560616378353585, -0.17323077570900716, -0.009892909835058063], [-0.6215700258749516, -0.9619946306082494, -0.40786958250333, -0.7416807315320514, -0.28719581640140673, 0.30356503558770476, 0.36930651200110653, 0.20901266026869325, 0.2627772178442937, 0.741436350822216, 1.0000795010799048, 0.280970989736435, 0.09646491714543208, -0.33855100065401855, 0.6849817869546232, -0.040084621078065354, 0.1540615075275774, 0.8906825958866491, -0.09633280492165655, -0.04562289966050447, 0.02146452108188636, 0.0440004572392574, -0.15401677719078347, -0.02730082657408492, 0.10807800738480129, -0.1478891840034656, -0.08803152271451628, -0.024382062020679638, -0.12698861883309076, 0.09090709197624611, 0.25160967535216394, 0.004389786252665397, 0.044652014820735754, 0.1346295207929533, -0.22070616503664528, -0.09581844749926052, -0.19357987800928364, -0.01625947785381321, -0.05374064410023234, -0.017677805581033268, 0.058427802262558726, 0.0606048171252858, 0.005325376290409676, 0.03935349093978485, 0.11539770374984205, 0.0066439480594864785, 0.22003267204431942, -0.13506050503383024, -0.19182905944724638, -0.04891296005423843], [0.6554114166854472, -0.012145072552536058, 0.25220429213369194, 0.23716921711553923, 0.15742772908490443, 0.4487300555753546, 0.31646139128220657, 0.4040176773836074, 0.3015199699867798, -0.3106232952051411, -0.3405920274159038, -0.06879548983179727, 0.08041163895028354, 0.2958007061159551, -0.8122505848567237, -0.05737664015165557, -0.5415525099922166, -1.3829873243143587, -0.3908889359858604, -0.07808152350352857, 0.10466504458528658, 0.049549355485038596, 0.1915874684529456, -0.025984315441873882, -0.08305916860297685, -0.08193382654493798, 0.26230905778692337, -0.18885856485861927, -0.29652751451489495, -0.1598915747822041, -0.05435130554504994, -0.14332545098052724, -0.36532863304245566, -0.1890749085720725, 0.002950295850202187, 0.005557579791622243, -0.256627224759842, -0.3616508854569525, -0.13637381827149578, 0.28080595391849644, 0.04014170395520593, 0.20312118637031268, -0.05379378144465058, -0.03203198241456533, -0.2931287511751112, 0.16897698439107914, -0.2362646127476332, -0.003462357758030015, -0.13259511957298592, -0.25410440031142534], [-0.2305455228888281, 0.793161074056938, 0.6116533945915538, 0.07265160210342442, -0.444789220349012, -1.2636025894965377, -0.818631826146665, -0.7634268098994672, -0.2096547794486387, -0.0780224260405428, -0.09492176602766422, 0.21501031023736583, -0.16420468458975304, -0.0981207067829104, -0.04807593284380167, -0.17017202798270453, -0.06370479133370192, 0.23355983615698916, 0.23625718544463187, 0.039266946553520046, -0.1443264320696224, 0.011480389151548585, 0.0454677289564558, 0.2003104058976179, -0.02506098557194145, -0.027554534485639527, -0.005258374476011667, -0.051795171988748216, -0.002039796283766908, 0.00858356633846401, -0.05199510633434008, 0.18273569222806882, -0.2768523095926799, 0.17435294288386388, 0.26247958814550565, -0.008102249287391169, -0.08571041871693148, 0.052991555392056564, -0.13876661106553909, -0.03591327477861571, -0.07688140095295916, 0.14633309316054385, -0.08582286218338263, 0.0245430961968313, -0.21085154567657036, 0.028973296668021235, 0.014619854927860108, 0.19227371342875682, -0.12364358111435655, -0.041942220140088256], [-0.8246146763533967, -0.7910735088380505, -1.344754671851466, -0.29159496041807714, 0.6986355251945044, 0.5206633358795525, -0.1984520969298357, -0.26084222812416297, -0.26120124043744114, 0.3479034372487801, -0.6596923334116754, -0.42296186524013185, 0.6747211017257664, 0.09223973087226028, 0.6965730002929582, 0.6535206776098879, 0.9278462014779798, 0.6128347213809429, 0.4161660150084244, 0.5246942656222228, -0.11181974140647585, -0.2321338497921654, -0.23933807800313692, 0.19633919059206822, 0.13242143082632585, 0.2737241709889854, -0.3049297859414613, -0.1600459489466199, -0.2257662567880483, -0.03317564880817642, -0.02560550109735059, 0.15790113189392277, 0.0777884778557535, 0.08429366946208859, -0.05390811437591596, 0.07928398564600656, 0.3491188653067894, -0.11953931484779813, -0.05739051800223966, -0.19807118371535148, 0.012342645713589616, -0.13582027976348987, -0.2442353392139886, 0.17587921229285075, -0.10236016274302795, -0.08532585232985306, -0.20739235302831135, -0.05807939375052787, -0.22163724906638133, -0.0363297949566982]]], "biases": [[[-1.1571698725905561], [-2.2126227038188944], [0.5345868067285537], [-1.1876688684950945], [-2.031271765926812]]], "sizes": [50, 5]}