{"cost": "CrossEntropyCost", "weights": [[[0.2861894472115055, -1.1397636822194799, -0.9936594934409263, -1.1863745144765214, 0.14768218933813834, -1.0288930947689476, -0.436761607224917, -1.5267513422159131, -0.45302831012856176, -0.514930327604827, -0.5898284853408539, -0.3421045985957489, -0.20480919274364445, 0.2754650853842642, -0.027753807026177735, -0.1727818258436653, -0.5403353266531844, 0.24474250779224077, -0.33885251639854524, -0.05357233035134426, 0.1268939901614652, 0.35714033902897824, -0.38700321941209737, -0.2031424390142685, -0.22950067207007363], [-3.2023121319142285, 1.5822471366134316, -2.5938252913304853, -1.891819838036072, 7.731758155043301, -2.535843329957488, -3.7345588055091836, 0.3658654303313781, 7.3519747741873775, 1.9888918907618929, -4.441399641383925, -2.416084802747596, 0.2878823247350194, -2.9200050641948723, -0.34968045358056704, 2.292100768087247, 1.6648822973181279, 4.127365453221042, 2.0236751934206274, 1.4910474625970738, 0.002773700248301366, 0.09573915424830476, -0.35668739702507574, 0.2069152430190683, 0.04597838147415658], [15.045764254771166, 9.50812737579905, -15.387410640134435, -6.428955432966535, -4.610202195955245, 0.9624323367525449, 1.1216526824020339, 1.2043334705527278, -0.8799885402297639, -0.557687582555194, 0.49715521516486244, -0.6767951339545115, -2.587429716286587, -0.5060952972238281, 4.298973076431633, 9.365023100123294, 1.7999610770772894, 3.7664378357707244, 0.11552657451617367, 1.740381175370506, -0.24502575969610904, 0.13981357493624585, -0.19145517035292553, 0.14401023912326688, 0.17155096029153138], [-0.6086406129425115, -5.69207938942726, -0.8848236897325115, 2.1455499077246873, 0.444609134114971, -4.740552387218875, -1.0571771084655328, -2.90695839747853, -3.8068338158723853, -2.894326236284101, 0.9709521128944975, -1.923055243788688, -0.1732355652384217, 7.703264309594748, 5.18091520569973, 2.3253769997049907, 0.20765506900108172, -0.22718398925645225, -1.329587837553124, 0.5766344816313582, -0.06326950713791937, 0.004725543668269304, -0.08238984234122317, -0.09450808413674933, -0.47513071270284646], [-2.7247733151158555, 1.944379727023892, -1.5554670731338005, -6.2962213315004565, -3.24481881476984, -2.6746831822099213, -2.924007025336188, -4.178485113824044, 7.607400081743932, -1.415292185479027, 2.592047886816277, 1.8288771319909147, -0.12070525701894945, 0.9412964103108353, 0.5408339246390638, 2.388287958074321, -3.221433779638538, -2.3545338360794608, -0.6244365372479143, -0.8253532981802857, 0.1489660392229754, -0.2778591604683868, 0.3560783692519192, -0.12681907362516712, 0.31874418046531894], [0.29748224407585105, -3.4225748556457902, -3.087008363586055, 0.3728528772970397, -3.957434450602709, -3.6585911328002414, 2.400674210452742, -3.9448677142025947, 2.895787734249679, -1.526907726271993, -3.6796296918620492, 1.4047899946546125, -2.9120517761255678, 0.9162409797656013, 0.27980295077240447, -1.3347122822276427, -1.2412963041203844, -0.7670402225648582, -0.29800521173839695, -0.10841838940150579, 0.2725523454507047, 0.01076055174913599, 0.11425677586743341, -0.4350574536677006, 0.27011727713679157], [-2.057071912488123, 2.8147776597573957, -0.4236351035680129, -5.341796607601642, 0.10189184544747348, -0.37562350960791513, -0.21262297170340014, -2.590645818498819, -4.64433561447093, -0.3741032930244288, -3.3036756279893176, -4.107318289203587, 1.9029228956234867, 0.9532151230886423, -0.10795398668498533, 1.8222067381012532, -0.601536636065473, -0.19023724738649606, -0.08382859876464621, -0.1115645309060102, -0.4648757387459458, -0.1021076472146254, 0.16706420447432577, 0.07095812751892185, -0.13425322653945151], [10.15437806526947, 4.536353208105392, 0.8407317089545399, -1.7333247051906653, -5.309113214934893, 2.200903696020367, -4.951820978016914, -3.4221485163458296, -11.34896691596019, -1.7423826630856634, -4.4172971795413725, -1.3112824140347843, 3.211784115320217, -1.2597813894235967, -6.835505580015767, -1.3732312254223604, 3.1696508295178547, 1.0575766710574455, -0.19997468567186474, 0.012779207180080923, -0.1520387240947085, 0.13438894277569918, 0.17125713866682124, 0.21679139624894633, -0.17243747848863322], [1.4498742777971725, 3.030411487919893, 6.036051639698793, -1.8423761184475451, -4.826741160170239, -6.606192392308365, 2.6487469882890395, -6.735571170447011, 3.190712263773383, -5.645886944008028, -5.74855621421237, -1.9037318004338715, -6.034240156687603, -7.138605626931899, -0.7188387156688805, -3.829975962711465, -1.1159990889303584, -0.583798532631547, 0.14658745452120328, -0.29580036326771847, 0.0969615108560336, 0.3876185737678145, -0.06957883840898772, 0.4000676708094818, -0.17968651619832085], [0.22440482806502504, -0.5212430737578033, 0.18211766746052246, 0.06318336178738498, 1.1666028364850034, 1.761341081033234, -5.497919510417012, -1.9852860304959363, -0.11087967965726389, 1.7431633951881065, -3.3061921241464542, 0.8626911762103558, -0.8594741785861385, 2.4498046760476617, -0.20345429557278386, 1.92689407334794, -1.5935108151193134, -0.6953672663564727, 0.5076971186058223, -0.08824660736761755, 0.3430437477250322, 0.11286705403804176, 0.4712729699901762, -0.19373306261613144, -0.19435222892662926], [11.345351308910512, -2.121082567813884, -16.31119699188245, -14.776177603827628, 1.4086589988653344, 6.212729010457273, 0.6425946257867912, 0.24452558377817196, -3.0561824995127194, 2.387734042454675, 3.3380462025796436, -2.8339798587010154, -9.719731867094922, -1.9880425524474419, -5.9041846080772595, 0.6998425256314565, -0.8018514582842428, -0.9708434184159341, 0.22610618408670566, 0.11998650639528735, -0.07446500282632657, -0.29105886980922235, 0.014764235212008125, 0.17411753253569143, 0.013498319174615766], [0.6259982982318193, -2.906214194673155, -3.3657300827148053, -0.6736493208435949, -0.9369276640625495, 0.8995407429132084, 5.0956764648081005, -3.7670828562195755, -7.814702943603945, 0.4844007763540948, 5.890381171641007, -1.1502569004007694, 3.5426286122362574, -1.1478413566172614, 3.511364225615524, 1.9686790906164175, 1.1600600509558952, 1.7759295319663624, -0.9931727873225503, 0.16148027167889115, 0.2646954905198985, 0.19620754421916914, -0.2209720648326181, 0.13770810425616917, -0.14522705995034357], [-0.7894715349458791, 4.863154997189119, -3.665829933322923, 1.1348174703715208, -5.1412144782556135, -2.9631824818192296, -0.1991739374396961, -6.170113872773551, -2.105879779440906, -0.8650806134183483, -0.9808167573295314, 3.820545319803529, -2.464874449887797, -0.5004452096341074, -1.8243713761276374, 4.352183188440573, 0.1512684138139861, 1.12576932374687, 0.06949565785933928, 0.018276383535108333, -0.061986329710082035, -0.17315239369652238, 0.5167367045550517, -0.043207662580869124, 0.003985644387717216], [4.438674497367568, -18.674198931154763, -2.2285620352757105, -6.950414079962539, 13.71302960171453, -2.2686485509911183, -2.505586859254094, -1.2643885681709726, 0.9171384410067243, 1.209441053358211, -0.015171156030078443, -0.3928513595675174, 0.48113579152215213, -2.297080363463114, -4.024215108111421, -0.21160093212940925, 2.054307069951642, 2.1866297636061898, 3.5517002083472935, 1.2560481233192073, 0.03348854850065784, -0.14654506865417935, -0.31427627773086475, -0.0055696142808550194, 0.07146649904902577], [4.3354291152277735, -2.034731718735493, -7.311728575116491, 8.10569234948135, -1.6600068743339875, -1.9627894311736882, 1.2217318442000764, 3.1636973176125167, -1.4295788102144875, -6.8620945263368025, 0.06617146507717657, -3.242079433267942, -0.6164139679713937, 0.031042015411567057, -0.790446087144142, -6.957101088645747, -3.6350035856040956, 0.23389560375357932, -0.7140484129111493, -0.4256996087268123, 0.07643291942724997, 0.21757024284882842, -0.005638002162793188, 0.6005944623407411, -0.3063435600673877], [-2.8113225428834805, -1.6038042946999356, 17.051419380053343, -3.5597326766275383, -1.7437983035415794, -0.6821823629653491, -3.0906198937914526, 0.6902895899397351, -3.4408067221231207, 2.4632576432786184, 6.21899003798991, -2.672234889496381, -4.445199865825274, -2.0813015743493066, -2.721481037680658, -0.39266352302420277, -0.289026998502172, -0.3649026460553507, 0.314452195558195, -0.20073794328881045, 0.11199221989984609, -0.221893711706706, 0.37357971027658804, -0.10233189676233209, 0.2273604715780379], [-6.437419990723971, -1.0228412719389308, -4.298744302845521, -4.082414104408932, 0.4997978501915331, 3.9554293207655373, -1.4326067369224966, -5.176371560141388, -3.2587789258249615, -0.6190419893652582, -1.9249858431095521, 5.933113696257348, 4.6185086862657, 5.6521919481528355, -0.9807684612243963, 4.297189038669166, 4.784420573511527, 5.216969847997372, 5.651010470405668, 2.313105799178197, 0.17543014233667514, 0.035530217182773015, 0.4496200712236866, -0.05130335882692595, -0.01773882155143356], [-2.170166373694083, 3.4186169659482912, 0.40330198786970634, 6.955904586661954, 2.872587992208437, 1.6216976990139942, -3.2744645244176693, -0.2072085798483708, -10.155398684035264, -1.4744586085461795, 3.7525130749679136, 5.41193986895335, 2.645987299978204, -3.008559687705112, -1.2885457110217235, 3.150318953566547, 2.837534278146289, 1.2817969263049869, -1.1614924429101756, -0.38269699150125847, -0.10635005522502279, 0.37598146510099195, -0.12249047977068209, -0.015029528703158771, -0.022055778524778087], [1.7047697961288597, -5.2514518511557045, 4.947139964659871, -6.141635104910873, -4.90851238624156, 6.241633492646026, 1.288864893273625, -1.5097866981170707, 2.5720861830748714, -0.5514553033254815, 2.9218836256883747, 3.0132294057363294, -1.9009088602667783, -1.8760645457150242, 1.8066452195599196, 1.727479005257458, 0.4729129945261805, 0.6653233766534777, -0.04552226953584354, 1.8255627720724905, 0.09229340599642422, -0.19516653764579608, -0.11772804654635047, 0.20594482167160155, 0.12188458720135328], [-1.4729553360649186, -1.979276976236991, -1.5242706773234975, 2.844132523076695, -9.625220914341764, -6.098946046275359, 1.2799606561192363, -8.45975659955333, -1.4179496771744142, -3.715937695326768, -2.076464868424947, 1.9688398418736048, -1.549250042594949, 0.6650681056112338, -0.17729417687091245, 1.3501475681243267, 0.3301509892795892, 0.8190655791809619, -0.12787214316860598, -0.12764429998877264, -0.17682954175934462, 0.07442128242958397, -0.18227587835770467, 0.30240052848883925, -0.3995221274319024], [1.0928313199374127, 13.665035593486452, -3.2083452878223815, -0.43734377740522545, -10.163203502858664, 0.16437220404420286, -1.4809210593591142, -7.529750923926303, -1.7287822865475366, -1.1781394059862078, -4.366691102941287, -5.5955103946327815, -2.954479524881316, -6.963641179247172, -1.2657376640365388, -2.7262316095551613, -0.8625583904118307, -0.3501419925266888, 0.55004278807637, 0.1483538107059148, -0.09112324412533723, -0.32303481698491254, -0.08823655410747078, -0.0725829945960607, -0.07120765661980331], [0.42417323672567153, -1.2666008337409078, 0.272143604843254, 0.3018155280294607, -0.33269692827815456, -2.9191983482589645, -0.44539096502831604, 0.33303912761402266, -0.0012845232661437877, 0.1580639271553721, 0.0006993312865959791, -0.6751530808603824, 0.2939372784714284, -0.3949431309864393, 0.8552767545989479, -0.019187990423492365, 1.6181927373890017, 0.7376853701820429, 0.24579368131527937, 0.10893227014875358, -0.19024237454962192, -0.1509383060202775, -0.1979997343415255, 0.09662130982023084, 0.05617022947523913], [-0.7969574291387586, 0.743588496724486, -0.4168194662409631, -1.3779382455627474, 0.7346770341719565, -2.212370686538544, -1.1062776143778639, -0.7198243609382949, 0.044820203595783405, 1.2936554746916187, -1.4915869647590505, 0.0328371107130588, -0.043529319206920714, -0.2745758280013774, -0.6588115413496001, 0.6920205069812545, -0.04496810946811714, -0.4950921510069056, 0.017916046958657533, -0.18079295681120228, 0.07386100564156069, 0.22585925140470997, 0.2095681307917879, -0.10601315687101467, 0.19949138190174803], [-0.42119509124010024, -0.2877055533241147, -0.38745419570585854, -0.6714020306727839, -0.3994223663634881, -0.3800208247596568, -0.3997190320073622, -0.6540407521761281, -0.42198796183375176, -0.42706829835499815, -0.18779075752590502, -0.32502469092040753, -0.06871805832480554, -0.5283382503766035, 0.14019947635087354, -0.184994342668948, 0.024814366713641102, -0.0831143028536311, -0.09607099417464508, -0.2128869022301889, 0.10965124896132528, 0.2254641444571309, -0.02346699199740463, 0.2794318635745596, -0.21474294470857921], [-2.698897876884333, 0.523681081723955, -2.960647358393501, -2.99444074569624, 4.060619494062989, -0.18021200205974752, -0.21226143818999016, -1.5363610382679087, 0.5983505886402889, -1.6489542056887725, -0.530359835336755, -2.974714844784437, -2.551936528704539, -1.881621593255998, -0.7138163093666244, -0.4869053499916463, -0.02055547153005978, 0.11025978556671577, 0.11876242311368711, 0.1274368352617362, 0.08860609504319822, -0.026151663467924156, 0.3793411120190947, -0.215316790008732, 0.41216390253722485], [-0.6285809980418624, 0.2724528897212272, -1.1414627429218485, -0.3667646369226444, -9.110600429532315, -3.11158363126014, -1.4721936180816448, -1.8943095247190809, -4.386183420047111, 4.397756465543313, 0.3077692821110982, -1.0490959870014618, 5.12609968231948, 1.4626653715281062, 1.623967819366019, 3.427547549851538, -1.4813279318623906, 2.59894010918727, -1.0810090829193284, -1.2014603835621334, 0.1222263140726139, 0.05009142791692024, 0.1650082569903274, 0.05954187194421817, 0.5620757751338447], [4.830633364563277, -4.632821440309788, -3.5301229863265675, -5.881808352446843, -5.564704323868478, -0.3956287674564074, 1.738394628525735, 3.0618291301134093, 5.271689284607336, -11.867345523993519, 3.1662499195464737, -13.225176926200906, -3.04326443267589, -5.664255920039379, 1.7199778510494423, 0.8087917978523689, -2.6784068939755428, -0.5723273958696876, -0.07981463085306871, 0.2073234249249811, -0.09602514060502264, -0.06314859500108208, 0.02573456546826109, 0.22291331219905097, 0.2970603058419946], [-6.90222389401848, 1.0710858820469902, -7.56251604743354, -2.8337112648498395, -7.6810496393595376, -5.050312904780095, 4.361955974006581, 6.890652855739458, -1.0520342456983804, -6.414315132930045, -0.9953472968205713, 5.99276787312559, 5.147880739973968, -3.4941675211484715, -8.865706129373939, 2.4758128264095047, 3.173029620769337, 4.3828710076655195, -1.4721545701148766, -2.0407320508652758, 0.3273367111134139, 0.15216507032108775, 0.16622321051724148, 0.205076909976906, 0.02944166905855793], [-10.590808675884247, -5.594560679607462, 3.304214786962991, -3.50938787271427, -7.985690777240754, -0.7733478972968354, 2.55801831505053, -5.327187481720056, -0.4368299829195918, 4.4426091597765405, 2.347645082883206, -3.1440577292512275, 5.988072677251576, -1.1751491858083358, 2.166109412533204, -0.6189293980874467, -1.9120765037453737, 0.49668707437349363, -1.1036510039662804, -0.1470187126451841, -0.006107564776795797, 0.06757729791074346, 0.0578853929674336, 0.40899862938553266, -0.3465704279311739], [-1.1301798514410648, -4.79567613803747, -2.8525925236083047, -2.251750148070509, -1.2466567502885786, -4.81376816558052, -1.1959093793064255, -0.2664292545182709, 0.9642733645880623, 7.277010717966924, -8.529905905166192, 1.7879931422017088, -6.457316921032322, -5.448473986925794, -1.880250415464244, -0.24517799292402478, 0.18390744103255507, -0.109791117801118, -0.15450046577042165, -0.15509167468687365, 0.36184345367801474, -0.01862710131449644, 0.009420200718500742, 0.24928442011049365, -0.10460330007477445]], [[0.33527763745361333, -3.1274562330428264, -8.891258992809632, -1.9033043686125708, 0.6827363114249921, 4.421783141169319, 1.470254717714765, 2.7459534838524577, -2.9227234946405374, -2.616278821246522, 4.553287261802123, -3.7126018920329527, -0.4010520087911252, 3.3260037626808847, -3.671649555452389, -8.030300923755707, -6.268556376841132, 0.8015718617705727, 3.129835846696838, 8.03187811638448, 8.988100633939304, 0.3349167556607782, 0.36338672554842844, 0.2075957486069451, -0.0320490631236091, -1.5423717018643746, 2.4289978036890907, 1.4488526460082, -10.932235795492112, 0.9514064801820347], [1.2730889005442976, 1.6357800552543504, -1.4864357478728747, -1.217027070315641, 1.030095617454108, 1.1522342545121687, 1.2510179691059853, -5.149767789566218, -2.8114116940757854, 1.219441390927072, 0.3572268551237907, 0.9733736781552901, 0.978875761157421, -4.355045884826146, 2.616833563649291, -0.6335546522425068, -4.125388329448469, -9.310742119160464, 2.436665687176239, -3.230206389847775, -0.9329510636791736, 0.43565133575231013, 1.502341802957594, 0.5751753723136727, -2.9888846540881424, 4.620626385320011, -0.8153832766603646, 4.148144220269733, 0.1399765469989127, -0.7910757139505253], [0.9756624195608858, -1.8483332141481694, 0.025234326905681975, -2.9175675530927, 2.5199412249442674, -0.27675956158841464, 1.2029561431916629, 3.7340249914440826, 2.5330126328953275, 0.7919859343242797, -1.6707142357712983, 1.2563451682519067, 5.29523160057523, -1.7906269774390948, -0.10477209734656764, 0.2709429068601996, -4.60503530955083, 2.779704612101554, -1.013219702243544, -6.982174975921395, -2.868904093280267, -0.9098340731099095, -0.9821168006843503, 0.25258934146588624, 0.780523163444291, -0.602438397852076, 2.3369714195695863, -0.8895705359178753, -0.5848081529492343, 4.369859637712872], [-0.5939363468158061, -1.9212975403791512, 1.3524547664163298, -2.210304849897985, 0.2606712137107148, -2.07074721516793, -0.487397743380985, -3.0987689032381955, 0.5136846830424959, -1.0472398927728575, 0.2641940598607209, -2.7653375338048125, -1.2283339703566547, -1.538254778676601, 2.114539354411265, 1.4695173181653602, -0.6178477984152707, 0.5136165281172564, -2.753370277011776, -0.958479332433892, -1.939584321687708, -0.506197253789593, 0.6931798019321707, 0.13721980417874416, -0.08505538708466982, -0.602103777968345, -1.9157414847892609, -2.654650330286126, 1.2308060477667653, -2.090053237537885], [-0.23912613052476525, 1.5164107588747135, 1.7448295478901341, 4.154561565819658, -6.9586653813774575, -3.2306598424385933, -4.705184529814688, -2.7000209680274025, -1.1127468353085908, 0.04839643206876004, -2.2186259385839313, 0.5725551975222027, -2.6053717386467725, 2.876862183757265, -7.559340909040393, 0.6242524188303521, 4.276744463116501, -1.1185114081935312, 0.3972827606234898, 5.708564346646845, 0.055578179924814466, -2.1016315681675706, -0.31466865327863747, -0.3949298624149977, 3.080743072731011, -5.80097511531648, -2.0108075095689033, -1.2307548798665975, -0.44406646615558304, -4.459832168695054]]], "biases": [[[-0.7939705292841756], [-7.642945085767641], [-0.7294328822421601], [-0.7504762210029381], [-0.9114571227595942], [-0.8651289749712453], [1.0501966393343278], [-5.176449730433574], [-0.46454424966233776], [-2.414312547719443], [-1.024430585714557], [-3.1841849390580053], [-0.6825726199757011], [-13.80874393227185], [-5.586868643315373], [-10.31428455703747], [-3.3854227293276162], [-9.328092824853044], [-10.2587486418534], [2.38117403897997], [1.454405432820734], [-1.590934864445471], [-1.175664898604824], [-2.0368273426521712], [-1.1998542728364197], [-2.2924729523571328], [-0.9752611358656427], [2.4988984654456634], [5.878061785759183], [-2.292554802625533]], [[-2.1362717180796014], [-1.398807987387668], [-1.4951272333671284], [-0.8042404401126602], [-1.4403281630078073]]], "sizes": [25, 30, 5]}