{"cost": "CrossEntropyCost", "weights": [[[6.972948649302308, -5.989959942720797, -1.9812438130691865, 3.8502429674628726, -7.536224677065335, -4.359829031818428, -2.1070435261324794, -6.31035521255218, 0.2863526746450314, -3.083687553689456, -3.386212875129068, 0.2908861580665322, -0.6109899563116764, -0.40427644270909474, -0.8991138712193086, -0.2734738935959555, -0.11154125968046913, -0.12001946461416257, -0.08667859255738052, -0.007192965529318582, 0.005798855314840615, 0.022727731259072, -0.0012513350619883826, -0.07745452691360136, -0.04093083551527139], [1.945879882600166, 0.38250569117292565, -1.9554430028014402, -11.903324022558966, 0.7111334984972064, 5.267941272019388, -0.717092521788781, -8.071441633804291, 4.038118005383237, -1.7707281503008148, -2.3686365150733417, -3.1346762680210216, 1.6959366999145449, -0.7089493664283422, -2.6754765521427823, 0.2747970656198872, -2.007026520066086, -0.5041680341046902, -0.21270480683688062, -0.10195728385677968, 0.13512703687347166, 0.11124496626053702, 0.07785970599181684, -0.04122246932182057, 0.024032727518889005], [-1.0195455598005363, 0.44219132967596986, -1.6108359431978774, 2.7285768896357747, 0.6598835487836042, 10.111717037610834, -15.319556241311556, -6.602507369125901, -1.461936096414051, -0.33205501223480016, -3.9349780691735217, -7.281405028410363, -2.462604057540558, -2.427284603596069, -1.9486499005658253, -0.0864321943614517, -0.10418531805730216, 0.07373845047575478, -0.005401139888009199, 0.12350145299472907, 0.1571178156008271, -0.1278135758463744, -0.05221274845891386, -0.06526046883261177, -0.05890785687093521], [0.38016525475365315, -0.4837689525778315, -0.7284701848017652, 0.6607256731095014, 2.0546645455724435, 2.553921398656004, -9.282931417688218, -6.990115259843877, 3.6592091028031, 3.9130157794877656, -2.3169331265570214, -0.8974597362074004, 4.612266150586321, 2.0702419593681167, -2.0583346814393964, 1.235896101390748, -0.04542068607520081, 1.330373730466275, 4.590543087780182, 7.463062143147293, -0.3612765253883328, -0.8251637538643785, 0.07034061747362759, 0.05557386432502093, 0.021561094668356175], [18.954455102454446, -38.33258750838409, 22.496410832968845, -0.9156790989533916, 0.07414577560625439, -1.1978321544598132, -1.48837541141821, -0.7998564932157103, -0.2751487608339281, -0.5729906997220986, -0.6834857723445241, 0.921853676152925, -0.16681822731956455, -6.229882927041308, -0.3605908100397949, 0.8150980777916955, 0.9675621641844999, -0.9610883543428358, 1.5626831718462642, 0.16119640116799938, 0.14052331805220528, 0.09727944794312962, -0.05363262556139412, 0.022371655544880634, -0.018092392249541654], [8.642232181541543, -2.158801090655224, -0.7469275510252503, -0.6565817098909305, -2.6504499559847425, 1.2839805771819148, -0.47907226379369794, -2.4659668403537904, -1.0065816917808685, 2.6605166131673363, 4.960880087801009, 1.664194359455084, -0.11280195903196419, -3.6511768040485655, 2.68548718492561, 1.3044156020001976, 0.6934925111474985, 5.515570167933128, 0.6393572653507893, 0.7693252790835838, 0.08820979017345068, 0.18395849616181212, 0.08137784631677945, 0.03665175557206569, -0.06436791445452879], [1.4767294199384366, -0.9283414469780261, -8.23641300799691, -2.932815014841917, -2.2586622276586557, -6.137672226555201, 6.115706890465768, -2.694072811706488, -0.7610128425968814, -0.004901460486466962, 1.9641551343297239, -0.35182499475340834, -1.7895931573443349, -0.660037707376419, -1.2784166902555092, -2.5135115769513794, -1.4857469481921537, 0.014490557124637642, 0.38722032056499084, -0.11452747906359982, 0.11440415055389672, -0.01289174890799787, 0.11009546018160966, -0.06998325729559396, -0.12099485166801476], [-8.219835295253022, -4.725715643059644, 22.49617474068426, 0.1283384292645275, -0.7745714607180939, -2.064821797788257, -5.053052869886507, -4.295265329542533, -0.645983783590592, -2.588044510129, -0.15247198132540757, -0.5819150708133901, 0.21267282705700008, -2.0822704774694594, -1.3594157848141113, -2.644725403939945, -0.09794344650989498, -0.27213894994909715, -0.017732520883158843, -0.10947862017953064, 0.009778015704424372, 0.02990036309954192, -0.08670887889981418, -0.13787456180615348, -0.13479532531744592], [-0.35674826923795666, -8.541663105151514, -7.736044017079816, 6.042641794412679, 1.9142748134925787, -1.1808174070211443, 0.03005415160503574, -0.6585995119072818, -0.3368527893674094, -4.347361529434965, 0.5854447503478017, -2.4011151822838617, -1.2189167831662273, -2.3047012092137753, -0.19498933803589483, 0.06917613033056004, -0.43373734759117344, 0.17728743745784017, -0.5191644059905098, 0.18100099701605613, 0.06155850879729249, 0.06390685790288712, 0.09321397819543943, -0.1578364994934985, 0.013681351383339252], [-1.0708966765023584, 4.513245414839557, 3.4521393719742712, -4.486656337859912, -2.0381724058203545, -2.2369341333484187, 1.007907893348694, -2.136646051315711, 1.1943884540096938, -3.233324717830219, 1.0842393917266004, 2.638265543428287, -1.2685001126710265, -0.6547431836659882, -1.937144331969103, 0.043542911536143425, -1.310747617522941, -2.558929664429573, 0.5081102231879078, -0.3468108323547137, 0.10560521430271796, 0.1179386626623976, 0.029112183303969787, 0.06557087076199068, 0.025780445052146446], [-2.4441158869387243, -1.6530287955626233, 0.33906727230939726, -0.2733501486622047, -1.2861140013811494, -4.284078589747499, -1.1432059094552218, -0.6295091112527003, -1.3627715237491462, 7.891422473118723, -3.536119894741234, 3.293475620770306, -3.476665136112728, -5.075980567390982, -1.0929822660475255, 0.07125517286964586, 2.3439848816206195, -0.6571730761866593, 0.16768276611672892, -0.2356314168362676, 0.09484879420081437, 0.05535931659215837, 0.008900671310061479, -0.024011810748666568, -0.10572811168546248], [-4.766650922493905, -6.713354126484957, -0.9904420307356168, 6.184964700463254, -2.8630477128020946, 5.030143838743847, -4.316575309534251, -8.352923952468382, 5.366182237370664, -4.170846036380507, -3.38647253621689, -2.735000542529624, 0.700697568145276, -0.20513312799856878, -2.3983093055830085, -0.7275451598400199, 1.929294474937268, -0.10537135341710492, -0.2970129003996828, 0.024220782547052063, 0.08660497666250978, -0.08291625922034983, 0.041760817090395065, -0.06992638292549168, -0.10898588536200937], [13.996579573128821, -3.209483881245665, -16.3185090290632, -6.489107664456975, 4.185302469300293, 1.5695018103936489, 1.361236019544361, -0.27583667741168283, 0.98936700576444, 0.10177254095828644, -1.3264438133650958, -1.0810716878686135, -1.686631518212093, -5.9046424962144295, -0.36390215812108995, -5.357842990990826, -0.5551519976589157, -0.9900071940000879, -1.5851735009102856, -0.010803927798033035, 0.08660902586241472, 0.037420026863663476, -0.010031332295549415, 0.05905386502029609, 0.06467193273516313], [0.029864218938761077, -7.501089338873743, 13.465582090317083, 1.3859901461581607, -8.240084275713759, -8.437085393411147, -1.1316126595184826, -5.145795760999368, -6.5938313445547685, 0.568738386633955, -0.8715075638780166, 0.1541021583845458, -2.7479069685540125, -4.094611145143842, -5.7063833758072775, 0.9206988062231264, -3.3548712198568182, -0.24976693374343284, 0.2013366426162391, -0.13036180691138402, -0.02692737250934078, 0.0646001346846928, 0.03708747204826392, -0.007057524473684184, -0.13867154258623274], [-2.481626869393292, -1.6277110247294262, 4.315187991355081, -2.9282895891238208, -2.9287652040983487, -3.4162547720173873, 4.511893368544601, -5.275887179235106, 1.456715596304614, -5.078435945585936, -9.111445131451845, -7.290845591905149, 1.1611335390926083, -5.380208404855332, -5.785120117275448, 0.34037996590739245, -0.7138670990630971, 1.4909102357395614, 0.1829733876052272, -0.11701314974569026, -0.15050570753206674, -0.08013619236814332, 0.07019960050680897, -0.031637882021249536, -0.2139309022809217], [-2.8617312586305137, -5.941802694914614, 1.6393772635641342, 3.909568249534756, 3.6991852595437846, -0.9667388199558564, -0.9158979096484434, 0.17293209931592118, 3.617975159902729, -6.009224193332251, 4.177638764360046, -7.079575784870183, -2.0481201061808796, -3.701094157401813, -2.458380200431588, 1.227499456944199, -1.5838185572509385, 0.8620013324559682, -0.26249247274270904, -0.24586217995125142, -0.03171516607923434, -0.12484272356338896, -0.007797579538346939, 0.07674837895601383, 0.0335902745900186], [-9.170720745536181, -6.091154246889274, 2.0196755848325942, 3.5993342122335497, -6.1031045971983975, -1.2418952004279846, 0.07079128314133269, 2.287061352102001, -5.768964543724953, -8.775116017511913, -2.2727674789491483, 3.2880798312410864, 0.012314873858456659, -2.484396221311533, -0.913125214235266, -0.776574672611487, -1.6949050322257244, -0.29819309429058316, -0.10263947399247292, -0.010285835127944723, 0.029610522128255108, 0.10923199751210623, -0.061810735698761256, -0.050333492105122675, 0.15411692323237366], [1.063574724792919, 5.906219161734022, 1.2354039061173203, -1.9208627890547176, -3.979433604485232, -7.186687650802446, -5.312236310705955, 4.473096346687602, 2.2356604223097394, -1.6507325004831415, -2.114924060950799, 1.740207299208045, 0.10742128549998858, -4.637778674137593, 0.9410239802904197, 0.1168242196844013, -2.2646233166180147, -1.2374099516433978, -1.1319574012750577, -0.34617079082483243, -0.08541136695804916, 0.17182944859314267, -0.15813220398760947, -0.12440246760938138, -0.03232520328788654], [2.7424132033363002, 3.3617278326242896, -10.50881077365006, -5.683098419307655, -4.859320815885205, 1.0613307725418266, -3.366497948680631, -5.846273793869067, 0.4242997610652138, -2.6548573533040956, 5.7542657193059465, -1.9237809029878499, -3.467788967074342, -2.456745103740013, -1.5427956093959019, -1.3729052460809912, -0.8655744916063743, -0.04512222555285321, -0.013525651465016067, 0.08487311406597438, 0.004021084977924842, 0.02850671287825426, -0.11944119955947859, -0.07384787532419772, 0.07131004037237897], [-1.4313329832060175, -4.2519848838754175, 0.23416430082199366, -3.0570629279192145, 3.911700548297535, -1.5027125616213182, -1.6882493451141394, 2.6910044551283434, -4.112830870477103, -2.1721086222950032, 3.8678775371142082, 2.218599639730611, 1.6645734218622756, 4.043384559163911, 2.8141049707080272, 0.5111529695936828, -1.409730788261621, 2.123053478575573, 1.3003654232256447, 2.1252050239627067, -0.6959087898872042, -2.158923999248891, 0.027495182783326178, 0.08117008188078836, -0.2004158464694412], [0.33505632063451896, -0.4294798210472718, 2.9926604910467294, -4.739399803678661, -4.070018934311935, 1.9923686239065477, 6.070338509297636, 0.18147361159714748, -4.420868644397688, -1.42314603098804, 0.6342034501673648, 0.4816856038698526, -1.4407374024324848, -3.020874491818186, -0.7608280373893258, 2.44462283333016, -1.9540101902842413, 0.586530152575186, -0.27560907175482735, -0.07095016544827439, -0.04330165171262159, 0.12738030484868812, -0.0385492520350267, -0.12871043085953277, -0.0017959411113875152], [4.407607022448631, -0.712749336751404, -7.016617924375747, -0.023653327959186555, -4.116860387406209, -3.488720260760225, 0.22118947950658135, -0.3726670184804447, -2.4717204067702747, 0.23897494710307943, -1.814497457981646, -1.3033100799840158, 8.625512964141082, 1.4443042038247382, 0.7926930744036942, 0.3572698460094765, -3.4634962985799467, 0.4348323620630755, 0.6224442337148263, -0.6104357099905502, 0.01658787060906239, 0.2837321502737244, -0.1251210126322301, -0.015490177888429293, 0.1278927351314364], [-10.322142265000286, 5.87765418706475, 0.32478096714132976, 3.2946289593788096, -0.1768933659943011, -3.6366430144370616, -3.19923615126124, -2.07088040131574, -1.0840132425007873, -1.2010354116675812, -1.3142797045893786, -3.288513502911904, -2.351536583579642, -1.5902811208487844, -0.5871142433195246, 0.49137398283225897, 1.1690892905996593, 0.5104180184396403, 1.9708141830273058, 0.4679131895055118, -0.0021499828855823648, 0.053009968554347295, -0.0441784182467576, 0.06074611463580963, -0.07325227764548027], [-2.9020296207916103, 2.7488836024967176, -5.04559687047658, 5.152410950206681, -0.2695415619836533, 1.8730265524517287, -3.2019722214204998, 0.19091952515603333, -1.0884263498218794, 2.4055570996740965, -3.480376744919624, 4.437509959054292, -3.802521559064064, 1.505411811711288, -2.978586133321415, 2.024706699927564, 0.9876157495380165, -3.681863370643663, 0.6026080618542851, -0.28078517644033424, 0.046207196325480905, 0.07268108702397434, -0.02145891514541002, -0.041923297852192114, 0.02870548318226242], [-3.695886156483972, 0.7537462081897298, 3.7703175453238917, -1.4214326897555782, -3.047820760688921, 4.020310746288097, -1.682000468544926, 3.036275839206686, -5.892993382236794, -2.9599527259861933, 1.4221178489259212, -2.606799504032268, 1.8749467110827205, -5.549871255403681, 0.4156077143790139, 0.2620873785657598, -3.3871123785229007, 1.7046097652481396, -1.130981314121839, 0.09504338802873323, 0.13843923762451138, 0.1439548869563717, -0.14216012607136289, -0.12715730650291956, 0.0010139966345357708], [-0.6473135425256087, -0.13473832065071048, -6.975142186966222, -1.7369102642000178, 8.346472954849595, 4.252966431532656, 3.808774091637076, 3.0789061988519597, 4.32313798096438, -0.39893957704148686, -0.9821151899775162, -4.371843604925689, -3.6307204293485924, -2.436302452880707, -1.9341890369270724, -0.4591645355890603, 0.8604378090790067, -0.14873375128114913, 0.6552748618338493, 0.1605264049072352, -0.0011184830544535625, -0.05064149242223622, -0.0684625976222163, -0.10199241353303144, 0.007441289720196691], [-4.805309138219857, -0.5677685417753502, -2.493538127431415, 0.7813251890678796, -6.516547362630392, -6.224513899225113, -0.4507601382568608, -2.82364747402809, 1.8398348956252322, 0.7803971177857013, -3.1066193219339238, 3.171773541825118, -0.18344604267297712, 1.453914938267057, -3.5537650648992964, 0.6309313308031207, -0.04850434708236456, -0.15447219934134634, -0.6420310810283073, -0.16917490239065194, -0.10522643521583941, 0.10339544767198103, 0.01617750712846854, -0.02683877965812802, 0.016347460701035703], [12.154833206454306, 2.486763713095738, -4.14244884620097, 5.040920632878255, 2.4451211928485312, -3.626674713232629, -4.718008692076357, 0.41462222788790754, 0.5893044496110776, -0.8294283769905086, 0.47974245467238025, -1.25841920462723, 0.5316521644878819, -0.0215529795713866, 2.136862735634166, -0.08010308510062211, -4.774815535425061, -2.674874416980814, -0.05188328603515292, 0.1789059141942646, 0.10618943233303225, 0.0781570631743354, -0.029646311747744104, 0.055161464049247315, -0.19752172885578545], [1.6993819111497546, 0.9086298714409629, -6.064320955505386, -3.0498713768628303, -4.067887810201389, 2.2445407408013565, -1.1215128787291524, 7.087547587928519, -4.887751379405762, 1.346011985059514, -4.978660658146897, -1.4209088072956042, -2.1834799759199357, -1.1622845337992023, -0.10562889468121676, -1.5182334190420406, -0.5989176738132984, 0.32986043336357584, 0.05126265754307298, -0.012201053501759063, 0.08829472659095716, 0.13621547466819625, 0.11714019982103713, -0.011805431927294219, -0.008720805577182593], [1.5616952359820782, -3.4033515861418193, 19.268897493689376, -16.31628697685499, -2.8164398744701864, 12.011730209897797, 0.18858784847873136, -0.12782484068844355, 0.5856878356386958, -0.08658095850101792, 0.7524340972861506, 0.0629301453846697, -0.7275525359656355, 0.14133669510428215, -0.7111314950856642, -0.03020567527410283, -1.0314461773277634, 1.5927735164685592, -0.08323951913034315, -0.6999785198065277, -0.0652605629137894, -0.046521953793420244, -0.1001859774904487, 0.004360685661000756, -0.06517252290679489]], [[8.695603091564424, -0.6688660945901237, 3.734406147440148, -2.4994435366117145, -2.7868157058092535, -8.468951523690805, -7.20211446497027, -4.618709689295345, -1.4348628153955405, 2.5189116535923497, 1.4951366270812836, 0.6061956149451788, 4.8211397018482804, 2.580077215718274, 1.1683693002909548, 3.4712628762906332, -1.1477359658581927, -1.8853445706381513, 4.598349095252758, 3.538900830427784, -3.0818402622468026, -1.8596574617609776, 4.757185426036582, 1.0165311490153226, 2.0841109652203227, -0.6706127032821374, 3.0433675810530203, -10.019760153959743, 6.627498660968068, -0.5211923214423709], [2.918204624527823, -2.4524425550567073, 0.5393633279706174, 0.6814846550204772, -4.475688955167674, 0.946953224968586, 0.5844605716880346, -1.5567778745559822, 1.220267373991335, -2.412308396409516, 0.03440813903006884, -2.5774262371530896, -1.5091385621036264, -3.1334481334771063, -0.5394038591155556, -1.178242427105391, 4.415640522534782, 2.17755549859392, 0.7681963556123301, -0.48916293725918125, 0.9256006272943821, 0.026357157353569027, -2.6562226249645398, -2.083351336498323, -1.9258419620925515, 2.8344599974815257, 2.16736164592983, -2.367102938771782, 0.17946788260252586, 5.381395208445492], [-2.9132126628586748, -1.2137508794501701, 2.6714347193664096, -0.46826640544646686, 7.447822517467668, 0.4372235682529089, 2.4405702160009555, -2.793273262592849, -2.852766424493413, 0.9482922651110163, 2.388520433121332, -3.0709008085053617, -0.5982834805189698, -0.5410448214589216, 2.320128742478589, 1.7235611452290012, 0.9218558918200677, -0.14394455344370788, -0.3411065131004885, 1.1405600778008957, -2.404893328493835, 3.889278345394246, -1.1474967395204154, 1.3461063904688355, 0.9304650934196177, -1.1668584307607877, -0.20628773125755345, -2.613794766366224, -3.045810780313006, 0.5930200770909511], [-2.688809338515045, 2.676460306417458, -2.7869541812583862, -3.2512577779945437, -6.876645272400818, -0.7131824125015918, -1.357217068721781, 2.501025192757921, 1.3365075807212685, 0.5400789455805912, -1.214912889351725, 3.9069857983390346, 1.095227066156336, 2.0272723560866894, -1.5222228435925171, -0.45346739476977144, -4.002249569145823, -1.0611168354528078, -1.9621716376438059, -1.4561348877591043, 0.4525409818533434, -2.821317329007984, 0.5400440293277063, 0.19097850247033102, 0.7347073099989423, -2.723430025700535, -1.2216625728208528, 3.2638549998115662, -4.836520273367715, -5.514456541760425], [2.8477943566091026, -1.9569252144765648, -0.6433935873947262, 4.48230932449863, 1.4548896132779263, -0.06984279398149576, 0.07370804090490764, -0.2843615233599193, -4.3151648033626495, -4.653992900629802, -2.0738065196591258, -4.165586885141795, -0.16291231208987192, -1.889431565050162, -0.17076605949929427, -0.35418996448076934, 0.579124687768012, -3.566865070180499, -1.0886002057488537, 2.389516835317142, 0.276328679041922, -0.8017427794130706, 1.6852085144216333, 0.5763165750015257, -1.9164594444421492, 2.769945166392078, -1.5849578146229304, -2.1985333714448094, -0.1838616289514639, -2.436630142481568]]], "biases": [[[-4.308056319910644], [-5.528519638948212], [-4.8551909524783765], [-7.553050990834762], [-34.9167154777329], [-10.32443584210461], [-0.44617427005531485], [-10.304121381067084], [-2.6957162348437613], [-4.240314368644862], [-3.876908928969501], [-7.2846538328022685], [-3.611843218519634], [-1.971755161483929], [2.182902935347922], [-7.09129540294969], [0.34255265144706976], [-3.017513108767891], [-2.1336667127021647], [-8.001820711581999], [-5.6948733980780455], [-6.996862323145501], [-1.4119695064107065], [-5.716582385845152], [-4.395690801289583], [-14.548208523355317], [2.5145336171603425], [-13.13177928573052], [-8.224278894359456], [-28.345122943086]], [[-7.22279366561063], [-1.5368620312598447], [-2.380111317183093], [1.2656315192691383], [-2.7743365675637923]]], "sizes": [25, 30, 5]}